{
  "format": "mnist8-linear-float32",
  "train_accuracy": 0.8168833255767822,
  "test_accuracy": 0.8245000243186951,
  "weights_shape": [
    10,
    64
  ],
  "bias_shape": [
    10
  ],
  "prototypes": [
    "0000000000011100001111100011011001100110011111000011100000000000",
    "0000000000001000000010000001100000011000000110000001100000000000",
    "0000000000011100000111000000110000111100001111100011100000000000",
    "0000000000011100001111000001110000011100000011000011110000000000",
    "0000000000000000001101000011110000111100000111000000100000000000",
    "0000000000001100000111100011100000111100001111000011100000000000",
    "0000000000011000000110000011110000111110001111000001100000000000",
    "0000000000000000001111000011110000001100000110000001100000010000",
    "0000000000011100001111000011110000011100001111000011100000000000",
    "0000000000000000001111000011110000111100000110000001100000000000"
  ],
  "weights": [
    [
      0.004305947106331587,
      -0.037137653678655624,
      -0.009525115601718426,
      -0.05741782486438751,
      -0.3753262460231781,
      -0.1991851031780243,
      -0.05928545445203781,
      0.015996506437659264,
      -0.016606556251645088,
      -0.16581538319587708,
      -0.32684192061424255,
      -0.08588247001171112,
      0.7862035632133484,
      0.25249284505844116,
      -0.35079288482666016,
      -0.0635966807603836,
      0.025279704481363297,
      -0.5009194016456604,
      -0.46217992901802063,
      0.07580796629190445,
      0.6576550602912903,
      1.5593994855880737,
      0.5240646004676819,
      -0.5015239119529724,
      -0.006045839283615351,
      0.5126351714134216,
      0.5125433802604675,
      0.45629918575286865,
      -2.0683517456054688,
      -0.16894391179084778,
      1.3260527849197388,
      -0.08383172750473022,
      0.004690363071858883,
      0.3658903241157532,
      1.7108131647109985,
      -1.084822416305542,
      -3.0664026737213135,
      0.5631429553031921,
      0.7668269276618958,
      0.08388807624578476,
      0.012007035315036774,
      0.631147027015686,
      1.5228153467178345,
      -0.18689309060573578,
      -0.1638159304857254,
      0.3241698741912842,
      0.16759641468524933,
      0.012233702465891838,
      0.027005458250641823,
      0.15503588318824768,
      0.39124494791030884,
      1.5109801292419434,
      0.31576576828956604,
      -0.48195141553878784,
      -0.5593792796134949,
      -0.001037189387716353,
      -0.028680816292762756,
      -0.052977532148361206,
      -0.6496243476867676,
      -0.9455384016036987,
      -0.7458762526512146,
      -0.3984059691429138,
      -0.02550584077835083,
      -0.048322729766368866
    ],
    [
      -0.020901767536997795,
      0.0024138218723237514,
      -0.04505530372262001,
      -0.1050429493188858,
      0.3133683204650879,
      -0.002797230612486601,
      -0.01053412165492773,
      -0.023980917409062386,
      0.03375484421849251,
      0.057378023862838745,
      -1.0849957466125488,
      0.2685309648513794,
      0.16191476583480835,
      0.5323167443275452,
      0.604333221912384,
      -0.02165147289633751,
      0.052268948405981064,
      -0.1794903576374054,
      -1.6012341976165771,
      -0.9314002394676208,
      0.043649330735206604,
      -1.381266474723816,
      -1.1932014226913452,
      -0.04860002547502518,
      0.0009667485137470067,
      -0.09867867082357407,
      -1.5520888566970825,
      -0.8526083827018738,
      2.0738091468811035,
      -1.1585489511489868,
      -0.8828191161155701,
      -0.04843209683895111,
      -0.03891671448945999,
      -0.22923292219638824,
      -2.054159641265869,
      -0.151048481464386,
      1.052817940711975,
      -3.011723756790161,
      -0.5607223510742188,
      -0.010962407104671001,
      -0.016066303476691246,
      -0.9055989980697632,
      -0.39794471859931946,
      0.785477340221405,
      -1.1323812007904053,
      -1.059643030166626,
      0.35293808579444885,
      0.11940180510282516,
      0.011438566260039806,
      0.7218595147132874,
      0.512294590473175,
      -1.1149014234542847,
      0.16181720793247223,
      0.01073860377073288,
      -0.3357568085193634,
      0.010278463363647461,
      0.012316646985709667,
      -0.2658582627773285,
      -0.7399440407752991,
      -0.9872359037399292,
      -1.0841584205627441,
      -0.08526494354009628,
      -0.05662676692008972,
      -0.040143273770809174
    ],
    [
      0.025182751938700676,
      0.024396557360887527,
      0.041833121329545975,
      0.3155781924724579,
      0.42342451214790344,
      0.06380201876163483,
      -0.020316308364272118,
      0.020161110907793045,
      -0.03814585134387016,
      0.24986931681632996,
      1.0861402750015259,
      1.500661015510559,
      1.0706135034561157,
      0.2363084852695465,
      -0.2523864507675171,
      -0.03411703184247017,
      0.026456693187355995,
      0.44090354442596436,
      0.3063116669654846,
      -0.3330385684967041,
      0.11742730438709259,
      -0.05414707213640213,
      -0.08011409640312195,
      -0.16858923435211182,
      -0.059465568512678146,
      -2.2585036754608154,
      -2.5183792114257812,
      -2.3826088905334473,
      -0.9153569340705872,
      -0.2795460522174835,
      -0.2712811231613159,
      -0.14466896653175354,
      -0.11707419902086258,
      0.140326127409935,
      0.17495931684970856,
      0.5405163764953613,
      -0.037600982934236526,
      -0.49089759588241577,
      0.2626524865627289,
      1.0935518741607666,
      -0.2140645682811737,
      1.3470538854599,
      1.3342266082763672,
      1.2056035995483398,
      0.7019635438919067,
      0.9854084849357605,
      1.63654625415802,
      0.950632631778717,
      0.004327327478677034,
      0.6206598877906799,
      0.5019997954368591,
      -0.7982475757598877,
      -0.6816228032112122,
      0.7078155875205994,
      1.1637940406799316,
      0.10347549617290497,
      -0.011357505805790424,
      -0.21988601982593536,
      -0.6460617184638977,
      -0.6998557448387146,
      0.027371708303689957,
      -0.29564785957336426,
      -0.10922049731016159,
      0.06159121170639992
    ],
    [
      0.05805037170648575,
      -0.05949455872178078,
      -0.03328846022486687,
      -0.08542440831661224,
      -0.0949065089225769,
      -0.010722833685576916,
      -0.00010504543752176687,
      -0.05672401934862137,
      0.02817773073911667,
      1.106397271156311,
      1.2480149269104004,
      1.3516130447387695,
      0.5778205990791321,
      -0.06517922878265381,
      -1.0124012231826782,
      0.0013416189467534423,
      -0.08152646571397781,
      1.1932098865509033,
      0.11661282926797867,
      -1.0090506076812744,
      1.1467385292053223,
      0.7225983142852783,
      0.4113508462905884,
      -0.1098821684718132,
      0.014112078584730625,
      -1.0226504802703857,
      -1.4935526847839355,
      -0.14717857539653778,
      1.6991016864776611,
      -0.07125087082386017,
      -1.097784161567688,
      -0.02265297621488571,
      0.16522513329982758,
      -0.2407560646533966,
      -0.9127811789512634,
      -0.32041922211647034,
      -0.345290869474411,
      0.7367479205131531,
      0.33697211742401123,
      -0.18537749350070953,
      0.41956356167793274,
      1.7333388328552246,
      -0.4918973743915558,
      -1.8365079164505005,
      -0.010928984731435776,
      1.1027419567108154,
      0.762014627456665,
      -0.2206907421350479,
      -0.02369113638997078,
      1.5419398546218872,
      1.069951057434082,
      0.30091556906700134,
      0.6463117599487305,
      0.16413919627666473,
      -0.3590447008609772,
      -0.08200418949127197,
      -0.014085876755416393,
      0.1721557378768921,
      1.08698308467865,
      1.4807443618774414,
      0.7737360596656799,
      0.25712740421295166,
      0.069390669465065,
      0.0349336676299572
    ],
    [
      0.01673903316259384,
      0.03864666819572449,
      -0.23415592312812805,
      -0.6019940376281738,
      -0.4715922176837921,
      -0.17458157241344452,
      -0.11757829785346985,
      -0.05878623202443123,
      0.03091273084282875,
      0.21015717089176178,
      -0.5367547273635864,
      -1.225904941558838,
      -1.1854664087295532,
      -0.28872719407081604,
      0.7755327224731445,
      -0.11369150131940842,
      -0.05876521021127701,
      -0.07233034074306488,
      0.02494661696255207,
      -0.6366608738899231,
      -1.8291431665420532,
      0.21557052433490753,
      0.0016836858121678233,
      -0.17418420314788818,
      -0.18760652840137482,
      0.05431400239467621,
      1.6067819595336914,
      0.6747591495513916,
      0.02902187779545784,
      0.8202601075172424,
      -0.22591710090637207,
      -0.20770031213760376,
      0.0338173471391201,
      1.241631031036377,
      1.4012854099273682,
      1.2856531143188477,
      1.9300799369812012,
      1.2367937564849854,
      0.09155454486608505,
      -0.1293770670890808,
      -0.010632697492837906,
      -1.0379352569580078,
      -1.0131499767303467,
      -0.6418952941894531,
      0.5767140984535217,
      -0.9406780004501343,
      -1.0770161151885986,
      -0.15250828862190247,
      -0.01934923604130745,
      -1.1671078205108643,
      -1.2667449712753296,
      -0.7142437696456909,
      -0.32675737142562866,
      0.4623967409133911,
      0.2811771333217621,
      -0.0667877122759819,
      -0.04580122232437134,
      0.027480481192469597,
      -0.7250198721885681,
      -1.2716940641403198,
      -1.397371768951416,
      -1.1230921745300293,
      -0.1912136822938919,
      -0.04044357314705849
    ],
    [
      0.02570275403559208,
      -0.017342153936624527,
      0.0076505145989358425,
      -0.10799205303192139,
      -0.1492098867893219,
      -0.06428878009319305,
      -0.17794421315193176,
      -0.0022427598014473915,
      -0.0013266376918181777,
      -0.45247918367385864,
      0.0016330702928826213,
      -0.08076348155736923,
      -0.1634785532951355,
      0.5856492519378662,
      0.924946129322052,
      0.18888646364212036,
      -0.07981527596712112,
      -0.5956189036369324,
      0.3246026337146759,
      0.002136346884071827,
      -0.4709926247596741,
      0.01848692260682583,
      2.150609016418457,
      1.7061233520507812,
      -0.2658337950706482,
      0.36712411046028137,
      0.8200093507766724,
      1.8887908458709717,
      -0.8294984698295593,
      -1.725401759147644,
      -1.7407255172729492,
      0.026055989786982536,
      -0.04031749069690704,
      -1.2994047403335571,
      -0.4361836612224579,
      -0.6357598304748535,
      -1.3561644554138184,
      -0.0563042089343071,
      0.10868390649557114,
      -0.27276191115379333,
      0.026837168261408806,
      0.9196051359176636,
      0.18508011102676392,
      -1.066545009613037,
      -0.294421523809433,
      0.5988137722015381,
      0.5559220314025879,
      0.006241243798285723,
      -0.035827431827783585,
      -0.35633888840675354,
      0.717444658279419,
      0.47230565547943115,
      0.04973648115992546,
      0.3564209043979645,
      0.7221965789794922,
      0.031013766303658485,
      -0.03827766701579094,
      -0.09204916656017303,
      0.03413866087794304,
      0.7959433794021606,
      0.3279287815093994,
      -0.21078293025493622,
      -0.06033679097890854,
      0.031036129221320152
    ],
    [
      0.007866588421165943,
      0.025957999750971794,
      0.2949780225753784,
      0.740874171257019,
      0.6700474619865417,
      0.6795796155929565,
      0.4282826781272888,
      -0.050738487392663956,
      -0.03866583853960037,
      -0.24422010779380798,
      0.5171422958374023,
      -0.26424774527549744,
      0.3138665556907654,
      1.1076704263687134,
      0.8741058111190796,
      0.11551102250814438,
      -0.0009970272658392787,
      -0.8266062140464783,
      -0.6052415370941162,
      -0.9689000248908997,
      -1.7326356172561646,
      -2.6490821838378906,
      -2.001718521118164,
      -0.13418635725975037,
      -0.005093108396977186,
      -0.10790083557367325,
      0.22412942349910736,
      0.6791841983795166,
      -0.9236100912094116,
      -0.668077290058136,
      1.1151223182678223,
      -0.12566857039928436,
      -0.06119915470480919,
      0.036978092044591904,
      1.2954391241073608,
      0.8286885619163513,
      0.025010092183947563,
      0.5103698372840881,
      0.9539401531219482,
      -0.2246796190738678,
      -0.0013921664794906974,
      -0.6284685730934143,
      0.8143467903137207,
      2.7592878341674805,
      1.411974549293518,
      1.497336745262146,
      0.31873077154159546,
      -0.3099405765533447,
      0.010289600118994713,
      -1.1111425161361694,
      -1.1441497802734375,
      0.17103086411952972,
      -0.05525040253996849,
      -0.87158203125,
      -0.931686520576477,
      -0.07033967971801758,
      0.03200580179691315,
      -0.026162374764680862,
      -0.15175385773181915,
      -0.5372347831726074,
      -0.5212556719779968,
      -0.1242726743221283,
      -0.02004978433251381,
      -0.04969778656959534
    ],
    [
      -0.027600044384598732,
      0.031288031488657,
      -0.045526765286922455,
      -0.0356442891061306,
      0.015708593651652336,
      0.011746363714337349,
      0.035814400762319565,
      0.055346954613924026,
      -0.020291151478886604,
      0.00035449652932584286,
      0.2677849531173706,
      -0.8367254734039307,
      -1.6132469177246094,
      -1.5922645330429077,
      -0.7238308787345886,
      0.005714027211070061,
      0.15067096054553986,
      1.2488486766815186,
      0.9852595329284668,
      1.1437044143676758,
      1.262934923171997,
      0.7362475395202637,
      0.17746569216251373,
      -0.25659051537513733,
      0.8241181373596191,
      1.1555722951889038,
      0.5094439387321472,
      -1.4443955421447754,
      0.6230728626251221,
      1.2462648153305054,
      0.23320838809013367,
      -0.1434505730867386,
      0.06318631768226624,
      0.28996407985687256,
      -0.9256911873817444,
      -2.6583197116851807,
      -0.2658928632736206,
      1.1186469793319702,
      0.26171359419822693,
      -0.06345128268003464,
      -0.02172643132507801,
      -1.3560535907745361,
      -1.6313351392745972,
      -0.33190008997917175,
      -0.3667486608028412,
      -1.2188851833343506,
      -1.8992811441421509,
      0.023056315258145332,
      0.04113465175032616,
      0.12675298750400543,
      -0.34920331835746765,
      -0.3355393409729004,
      -0.5218712091445923,
      -1.353878140449524,
      -1.3616173267364502,
      -0.02101076953113079,
      0.02136937901377678,
      0.7505265474319458,
      1.4760031700134277,
      1.4288419485092163,
      1.3589509725570679,
      1.0463324785232544,
      0.1609169840812683,
      -0.052381731569767
    ],
    [
      0.03768147528171539,
      -0.037573277950286865,
      -0.0025642174296081066,
      -0.04625924304127693,
      -0.23007646203041077,
      -0.13308919966220856,
      -0.039843082427978516,
      -0.02818446420133114,
      -0.03498873487114906,
      -0.4740105867385864,
      -0.02504703216254711,
      0.32157427072525024,
      0.7479891180992126,
      0.3032144010066986,
      0.2016124129295349,
      -0.03886789083480835,
      0.04801877588033676,
      0.1656397134065628,
      0.9301560521125793,
      0.6782280802726746,
      -0.6430755853652954,
      0.6361225843429565,
      1.1786620616912842,
      0.4085223972797394,
      0.0021058842539787292,
      0.634885847568512,
      0.38781172037124634,
      1.353001356124878,
      0.26299798488616943,
      0.4933067262172699,
      1.0135173797607422,
      0.9220550060272217,
      0.023381229490041733,
      -1.24118173122406,
      -0.5749592781066895,
      1.8265283107757568,
      0.8936092257499695,
      -1.1712300777435303,
      -0.9424601197242737,
      -0.10123414546251297,
      -0.04080547019839287,
      0.0838872641324997,
      0.8578886985778809,
      0.5443598031997681,
      -0.83907151222229,
      -0.08989724516868591,
      0.11762891709804535,
      -0.2828197181224823,
      -0.007946097292006016,
      -0.1229451447725296,
      0.1788780391216278,
      0.8816672563552856,
      1.1894861459732056,
      0.6514507532119751,
      0.418771356344223,
      -0.015605654567480087,
      -0.021651776507496834,
      -0.4557417035102844,
      -0.4826613962650299,
      0.15744362771511078,
      0.7868524789810181,
      0.4186273515224457,
      -0.09398330748081207,
      0.03008853644132614
    ],
    [
      0.024776142090559006,
      0.02446441911160946,
      -0.0478331595659256,
      -0.037248123437166214,
      -0.2159263789653778,
      -0.06794486194849014,
      -0.04582000896334648,
      0.0135692423209548,
      0.0006761089316569269,
      -0.231916144490242,
      -1.0750864744186401,
      -0.9199678301811218,
      -0.9014189839363098,
      -1.049018144607544,
      -1.035557746887207,
      -0.07092414051294327,
      -0.1526024490594864,
      -0.8796493411064148,
      -0.03647490590810776,
      1.8755165338516235,
      1.6151472330093384,
      0.2531832158565521,
      -1.0012621879577637,
      -0.6995799541473389,
      -0.42558565735816956,
      0.9250954985618591,
      1.5817010402679443,
      -0.20927618443965912,
      -0.053317099809646606,
      1.5574434995651245,
      0.3915551006793976,
      -0.3615747392177582,
      -0.0559924840927124,
      0.9354598522186279,
      0.4243035614490509,
      0.3335656523704529,
      1.0782957077026367,
      0.42333686351776123,
      -1.3176445960998535,
      -0.13285842537879944,
      -0.004029689822345972,
      -0.826666533946991,
      -1.1852601766586304,
      -1.0538829565048218,
      0.16275379061698914,
      -1.0593005418777466,
      -1.1642284393310547,
      -0.14440792798995972,
      -0.005027133971452713,
      -0.4814216196537018,
      -0.7183418869972229,
      -0.5338554978370667,
      -0.6098955869674683,
      0.2022753208875656,
      0.776556670665741,
      0.026102285832166672,
      -0.007849976420402527,
      0.295210599899292,
      0.9567855000495911,
      0.7450295686721802,
      0.3271981477737427,
      0.7003353834152222,
      0.28588876128196716,
      -0.021668830886483192
    ]
  ],
  "bias": [
    -1.262686014175415,
    3.307220697402954,
    0.5827586054801941,
    -0.7380772233009338,
    -0.087920181453228,
    2.7484402656555176,
    -1.0809069871902466,
    2.2564969062805176,
    -4.294816970825195,
    -1.4009777307510376
  ]
}